<?xml version="1.0"?>
<opencv_storage>
<!-- Created using Computer Vision Toolbox(tm) for MATLAB(R) -->
<!-- Version 24.2.0.2712019 (R2024b) -->
<!-- Compatible with OpenCV 4.7 -->
<cascade>
  <stageType>BOOST</stageType>
  <featureType>HOG</featureType>
  <height>32</height>
  <width>32</width>
  <stageParams>
    <boostType>GAB</boostType>
    <minHitRate>9.9500000476837158e-01</minHitRate>
    <maxFalseAlarm>2.5000000372529030e-02</maxFalseAlarm>
    <weightTrimRate>9.4999999999999996e-01</weightTrimRate>
    <maxDepth>1</maxDepth>
    <maxWeakCount>100</maxWeakCount></stageParams>
  <featureParams>
    <maxCatCount>0</maxCatCount>
    <featSize>36</featSize></featureParams>
  <stageNum>4</stageNum>
  <stages>
    <!-- stage 0 -->
    <_>
      <maxWeakCount>1</maxWeakCount>
      <stageThreshold>9.4888180494308472e-01</stageThreshold>
      <weakClassifiers>
        <_>
          <internalNodes>
            0 -1 2 7.2889059782028198e-02</internalNodes>
          <leafValues>
            -1. 9.4888180494308472e-01</leafValues></_></weakClassifiers></_>
    <!-- stage 1 -->
    <_>
      <maxWeakCount>3</maxWeakCount>
      <stageThreshold>8.7574440240859985e-01</stageThreshold>
      <weakClassifiers>
        <_>
          <internalNodes>
            0 -1 12 5.9013664722442627e-02</internalNodes>
          <leafValues>
            -9.9003320932388306e-01 9.2971247434616089e-01</leafValues></_>
        <_>
          <internalNodes>
            0 -1 1 9.1948099434375763e-02</internalNodes>
          <leafValues>
            -9.7178274393081665e-01 9.6459627151489258e-01</leafValues></_>
        <_>
          <internalNodes>
            0 -1 9 6.3091337680816650e-02</internalNodes>
          <leafValues>
            -9.7258472442626953e-01 9.1781467199325562e-01</leafValues></_></weakClassifiers></_>
    <!-- stage 2 -->
    <_>
      <maxWeakCount>5</maxWeakCount>
      <stageThreshold>2.0805901288986206e-01</stageThreshold>
      <weakClassifiers>
        <_>
          <internalNodes>
            0 -1 3 8.0802127718925476e-02</internalNodes>
          <leafValues>
            -8.7812501192092896e-01 9.3454545736312866e-01</leafValues></_>
        <_>
          <internalNodes>
            0 -1 13 1.2764123082160950e-01</internalNodes>
          <leafValues>
            -8.8312220573425293e-01 8.8796335458755493e-01</leafValues></_>
        <_>
          <internalNodes>
            0 -1 0 4.6526547521352768e-02</internalNodes>
          <leafValues>
            -9.6072328090667725e-01 6.8970787525177002e-01</leafValues></_>
        <_>
          <internalNodes>
            0 -1 11 9.8270215094089508e-02</internalNodes>
          <leafValues>
            -8.9642846584320068e-01 7.0092505216598511e-01</leafValues></_>
        <_>
          <internalNodes>
            0 -1 3 3.4608587622642517e-02</internalNodes>
          <leafValues>
            -9.5285975933074951e-01 5.7867330312728882e-01</leafValues></_></weakClassifiers></_>
    <!-- stage 3 -->
    <_>
      <maxWeakCount>6</maxWeakCount>
      <stageThreshold>1.4303038120269775e+00</stageThreshold>
      <weakClassifiers>
        <_>
          <internalNodes>
            0 -1 6 9.7861483693122864e-02</internalNodes>
          <leafValues>
            -6.6666668653488159e-01 8.9032256603240967e-01</leafValues></_>
        <_>
          <internalNodes>
            0 -1 4 9.1285128146409988e-03</internalNodes>
          <leafValues>
            -8.0873650312423706e-01 8.1539309024810791e-01</leafValues></_>
        <_>
          <internalNodes>
            0 -1 5 1.1270090937614441e-01</internalNodes>
          <leafValues>
            -7.5667250156402588e-01 8.1554645299911499e-01</leafValues></_>
        <_>
          <internalNodes>
            0 -1 8 4.2408958077430725e-02</internalNodes>
          <leafValues>
            -7.5249528884887695e-01 8.3053773641586304e-01</leafValues></_>
        <_>
          <internalNodes>
            0 -1 10 5.5215112864971161e-02</internalNodes>
          <leafValues>
            -9.0401941537857056e-01 6.0809814929962158e-01</leafValues></_>
        <_>
          <internalNodes>
            0 -1 7 1.0357255488634109e-01</internalNodes>
          <leafValues>
            -9.4461923837661743e-01 6.7756843566894531e-01</leafValues></_></weakClassifiers></_></stages>
  <features>
    <_>
      <rect>
        4 0 8 8 20</rect></_>
    <_>
      <rect>
        4 16 8 8 6</rect></_>
    <_>
      <rect>
        8 12 8 8 29</rect></_>
    <_>
      <rect>
        12 0 8 8 2</rect></_>
    <_>
      <rect>
        12 0 8 8 18</rect></_>
    <_>
      <rect>
        12 8 8 8 29</rect></_>
    <_>
      <rect>
        12 16 8 8 20</rect></_>
    <_>
      <rect>
        16 4 8 8 6</rect></_>
    <_>
      <rect>
        16 4 8 8 7</rect></_>
    <_>
      <rect>
        16 12 8 8 15</rect></_>
    <_>
      <rect>
        0 0 8 16 33</rect></_>
    <_>
      <rect>
        4 0 8 16 24</rect></_>
    <_>
      <rect>
        16 0 8 16 6</rect></_>
    <_>
      <rect>
        0 12 16 8 29</rect></_></features></cascade>
</opencv_storage>
